digraph Tree {
node [shape=box, style="filled, rounded", color="black", fontname=helvetica] ;
edge [fontname=helvetica] ;
0 [label="petal width (cm) <= 0.75\ngini = 0.66\nsamples = 89\nvalue = [55, 41, 54]\nclass = setosa", fillcolor="#fffefd"] ;
1 [label="gini = 0.0\nsamples = 29\nvalue = [55, 0, 0]\nclass = setosa", fillcolor="#e58139"] ;
0 -> 1 [labeldistance=2.5, labelangle=45, headlabel="True"] ;
2 [label="petal length (cm) <= 4.75\ngini = 0.49\nsamples = 60\nvalue = [0, 41, 54]\nclass = virginica", fillcolor="#e1cff9"] ;
0 -> 2 [labeldistance=2.5, labelangle=-45, headlabel="False"] ;
3 [label="sepal width (cm) <= 2.55\ngini = 0.05\nsamples = 24\nvalue = [0, 36, 1]\nclass = versicolor", fillcolor="#3ee684"] ;
2 -> 3 ;
4 [label="petal length (cm) <= 4.45\ngini = 0.18\nsamples = 9\nvalue = [0, 9, 1]\nclass = versicolor", fillcolor="#4fe88f"] ;
3 -> 4 ;
5 [label="gini = 0.0\nsamples = 7\nvalue = [0, 8, 0]\nclass = versicolor", fillcolor="#39e581"] ;
4 -> 5 ;
6 [label="sepal width (cm) <= 2.35\ngini = 0.5\nsamples = 2\nvalue = [0, 1, 1]\nclass = versicolor", fillcolor="#ffffff"] ;
4 -> 6 ;
7 [label="gini = 0.0\nsamples = 1\nvalue = [0, 1, 0]\nclass = versicolor", fillcolor="#39e581"] ;
6 -> 7 ;
8 [label="gini = 0.0\nsamples = 1\nvalue = [0, 0, 1]\nclass = virginica", fillcolor="#8139e5"] ;
6 -> 8 ;
9 [label="gini = 0.0\nsamples = 15\nvalue = [0, 27, 0]\nclass = versicolor", fillcolor="#39e581"] ;
3 -> 9 ;
10 [label="petal length (cm) <= 5.05\ngini = 0.16\nsamples = 36\nvalue = [0, 5, 53]\nclass = virginica", fillcolor="#8d4ce7"] ;
2 -> 10 ;
11 [label="sepal width (cm) <= 3.05\ngini = 0.43\nsamples = 10\nvalue = [0, 5, 11]\nclass = virginica", fillcolor="#ba93f1"] ;
10 -> 11 ;
12 [label="petal width (cm) <= 1.75\ngini = 0.26\nsamples = 8\nvalue = [0, 2, 11]\nclass = virginica", fillcolor="#985dea"] ;
11 -> 12 ;
13 [label="sepal length (cm) <= 6.15\ngini = 0.5\nsamples = 3\nvalue = [0, 2, 2]\nclass = versicolor", fillcolor="#ffffff"] ;
12 -> 13 ;
14 [label="gini = 0.0\nsamples = 1\nvalue = [0, 0, 2]\nclass = virginica", fillcolor="#8139e5"] ;
13 -> 14 ;
15 [label="gini = 0.0\nsamples = 2\nvalue = [0, 2, 0]\nclass = versicolor", fillcolor="#39e581"] ;
13 -> 15 ;
16 [label="gini = 0.0\nsamples = 5\nvalue = [0, 0, 9]\nclass = virginica", fillcolor="#8139e5"] ;
12 -> 16 ;
17 [label="gini = 0.0\nsamples = 2\nvalue = [0, 3, 0]\nclass = versicolor", fillcolor="#39e581"] ;
11 -> 17 ;
18 [label="gini = 0.0\nsamples = 26\nvalue = [0, 0, 42]\nclass = virginica", fillcolor="#8139e5"] ;
10 -> 18 ;
}